Language model created by QuickLM on Sat May  3 11:00:56 EDT 2014
Copyright (c) 1996-2010 Carnegie Mellon University and Alexander I. Rudnicky

The model is in standard ARPA format, designed by Doug Paul while he was at MITRE.

The code that was used to produce this language model is available in Open Source.
Please visit http://www.speech.cs.cmu.edu/tools/ for more information

The (fixed) discount mass is 0.5. The backoffs are computed using the ratio method.
This model based on a corpus of 35 sentences and 37 words

\data\
ngram 1=37
ngram 2=70
ngram 3=35

\1-grams:
-0.7782 </s> -0.3010
-0.7782 <s> -0.2218
-2.3222 oob14九五五九八为您服务 -0.2218
-2.3222 msg29人工服务请按0 -0.2218
-2.3222 oob23以上故障我们正在排查中 -0.2218
-2.3222 oob11你用电 -0.2218
-2.3222 msg22停电信息查询请按3 -0.2218
-2.3222 msg703充值卡密码输注错误 -0.2218
-2.3222 msg701充值购电失败 -0.2218
-2.3222 msg32后付费用户请按2 -0.2218
-2.3222 oob13国家电网 -0.2218
-2.3222 oob21地区发生电力故障 -0.2218
-2.3222 msg502失败原因 -0.2218
-2.3222 msg501客户信息验证失败 -0.2218
-2.3222 oob22影响范围 -0.2218
-2.3222 msg511您的户名 -0.2218
-2.3222 oob12我用心 -0.2218
-2.3222 msg24投诉举报请按5 -0.2218
-2.3222 msg42按井号键结束 -0.2218
-2.3222 msg23政策法规请按4 -0.2218
-2.3222 msg21故障报修服务请按1 -0.2218
-2.3222 msg11普通话请按1 -0.2218
-2.3222 msg26服务承诺请按7 -0.2218
-2.3222 msg25本地区销售电价请按6 -0.2218
-2.3222 msg503用户档案异常 -0.2218
-2.3222 msg513用电地址 -0.2218
-2.3222 msg28电费充值卡请按9 -0.2218
-2.3222 msg27短信订阅请按8 -0.2218
-2.3222 msg706结束请挂机 -0.2218
-2.3222 oob24给您带来不便 -0.2218
-2.3222 msg514继续充值购电请按1 -0.2218
-2.3222 oob25请您谅解 -0.2218
-2.3222 msg611请输入充值卡密码 -0.2218
-2.3222 msg41请输注用户号 -0.2218
-2.3222 msg704重新输注充值卡密码请按1 -0.2218
-2.3222 msg705重新输注用户号请按2 -0.2218
-2.3222 msg31预付费用户请按1 -0.2218

\2-grams:
-1.8451 <s> oob14九五五九八为您服务 0.0000
-1.8451 <s> msg29人工服务请按0 0.0000
-1.8451 <s> oob23以上故障我们正在排查中 0.0000
-1.8451 <s> oob11你用电 0.0000
-1.8451 <s> msg22停电信息查询请按3 0.0000
-1.8451 <s> msg703充值卡密码输注错误 0.0000
-1.8451 <s> msg701充值购电失败 0.0000
-1.8451 <s> msg32后付费用户请按2 0.0000
-1.8451 <s> oob13国家电网 0.0000
-1.8451 <s> oob21地区发生电力故障 0.0000
-1.8451 <s> msg502失败原因 0.0000
-1.8451 <s> msg501客户信息验证失败 0.0000
-1.8451 <s> oob22影响范围 0.0000
-1.8451 <s> msg511您的户名 0.0000
-1.8451 <s> oob12我用心 0.0000
-1.8451 <s> msg24投诉举报请按5 0.0000
-1.8451 <s> msg42按井号键结束 0.0000
-1.8451 <s> msg23政策法规请按4 0.0000
-1.8451 <s> msg21故障报修服务请按1 0.0000
-1.8451 <s> msg11普通话请按1 0.0000
-1.8451 <s> msg26服务承诺请按7 0.0000
-1.8451 <s> msg25本地区销售电价请按6 0.0000
-1.8451 <s> msg503用户档案异常 0.0000
-1.8451 <s> msg513用电地址 0.0000
-1.8451 <s> msg28电费充值卡请按9 0.0000
-1.8451 <s> msg27短信订阅请按8 0.0000
-1.8451 <s> msg706结束请挂机 0.0000
-1.8451 <s> oob24给您带来不便 0.0000
-1.8451 <s> msg514继续充值购电请按1 0.0000
-1.8451 <s> oob25请您谅解 0.0000
-1.8451 <s> msg611请输入充值卡密码 0.0000
-1.8451 <s> msg41请输注用户号 0.0000
-1.8451 <s> msg704重新输注充值卡密码请按1 0.0000
-1.8451 <s> msg705重新输注用户号请按2 0.0000
-1.8451 <s> msg31预付费用户请按1 0.0000
-0.3010 oob14九五五九八为您服务 </s> -0.3010
-0.3010 msg29人工服务请按0 </s> -0.3010
-0.3010 oob23以上故障我们正在排查中 </s> -0.3010
-0.3010 oob11你用电 </s> -0.3010
-0.3010 msg22停电信息查询请按3 </s> -0.3010
-0.3010 msg703充值卡密码输注错误 </s> -0.3010
-0.3010 msg701充值购电失败 </s> -0.3010
-0.3010 msg32后付费用户请按2 </s> -0.3010
-0.3010 oob13国家电网 </s> -0.3010
-0.3010 oob21地区发生电力故障 </s> -0.3010
-0.3010 msg502失败原因 </s> -0.3010
-0.3010 msg501客户信息验证失败 </s> -0.3010
-0.3010 oob22影响范围 </s> -0.3010
-0.3010 msg511您的户名 </s> -0.3010
-0.3010 oob12我用心 </s> -0.3010
-0.3010 msg24投诉举报请按5 </s> -0.3010
-0.3010 msg42按井号键结束 </s> -0.3010
-0.3010 msg23政策法规请按4 </s> -0.3010
-0.3010 msg21故障报修服务请按1 </s> -0.3010
-0.3010 msg11普通话请按1 </s> -0.3010
-0.3010 msg26服务承诺请按7 </s> -0.3010
-0.3010 msg25本地区销售电价请按6 </s> -0.3010
-0.3010 msg503用户档案异常 </s> -0.3010
-0.3010 msg513用电地址 </s> -0.3010
-0.3010 msg28电费充值卡请按9 </s> -0.3010
-0.3010 msg27短信订阅请按8 </s> -0.3010
-0.3010 msg706结束请挂机 </s> -0.3010
-0.3010 oob24给您带来不便 </s> -0.3010
-0.3010 msg514继续充值购电请按1 </s> -0.3010
-0.3010 oob25请您谅解 </s> -0.3010
-0.3010 msg611请输入充值卡密码 </s> -0.3010
-0.3010 msg41请输注用户号 </s> -0.3010
-0.3010 msg704重新输注充值卡密码请按1 </s> -0.3010
-0.3010 msg705重新输注用户号请按2 </s> -0.3010
-0.3010 msg31预付费用户请按1 </s> -0.3010

\3-grams:
-0.3010 <s> oob14九五五九八为您服务 </s>
-0.3010 <s> msg29人工服务请按0 </s>
-0.3010 <s> oob23以上故障我们正在排查中 </s>
-0.3010 <s> oob11你用电 </s>
-0.3010 <s> msg22停电信息查询请按3 </s>
-0.3010 <s> msg703充值卡密码输注错误 </s>
-0.3010 <s> msg701充值购电失败 </s>
-0.3010 <s> msg32后付费用户请按2 </s>
-0.3010 <s> oob13国家电网 </s>
-0.3010 <s> oob21地区发生电力故障 </s>
-0.3010 <s> msg502失败原因 </s>
-0.3010 <s> msg501客户信息验证失败 </s>
-0.3010 <s> oob22影响范围 </s>
-0.3010 <s> msg511您的户名 </s>
-0.3010 <s> oob12我用心 </s>
-0.3010 <s> msg24投诉举报请按5 </s>
-0.3010 <s> msg42按井号键结束 </s>
-0.3010 <s> msg23政策法规请按4 </s>
-0.3010 <s> msg21故障报修服务请按1 </s>
-0.3010 <s> msg11普通话请按1 </s>
-0.3010 <s> msg26服务承诺请按7 </s>
-0.3010 <s> msg25本地区销售电价请按6 </s>
-0.3010 <s> msg503用户档案异常 </s>
-0.3010 <s> msg513用电地址 </s>
-0.3010 <s> msg28电费充值卡请按9 </s>
-0.3010 <s> msg27短信订阅请按8 </s>
-0.3010 <s> msg706结束请挂机 </s>
-0.3010 <s> oob24给您带来不便 </s>
-0.3010 <s> msg514继续充值购电请按1 </s>
-0.3010 <s> oob25请您谅解 </s>
-0.3010 <s> msg611请输入充值卡密码 </s>
-0.3010 <s> msg41请输注用户号 </s>
-0.3010 <s> msg704重新输注充值卡密码请按1 </s>
-0.3010 <s> msg705重新输注用户号请按2 </s>
-0.3010 <s> msg31预付费用户请按1 </s>

\end\
